256.778134975,75.3070454937,213.847659541,144.255770208,105.562546935,45.2547948556,119.011544746,-162.24429456,-116.576429877,-122.650735042,-177.677745607,-151.109696452,-170.265399701,-176.350045591,-39.9700450363,0.509248715844,-32.8993073307,-56.1743175131,-37.959279487,-13.6448788268,-21.4496770126,-96.0291222788,-71.9466280751,-79.0543475332,-116.576429877,-9.56761240794,-8.51001651539,-70.4914122383,54.2260428431,49.3888483571,-42.3295091909,126.417719386,41.1810531623,92.9970794305,107.062565187,125.299427922,107.972471967,125.857503491,197.293547861,189.547557336,200.119819524,222.629961612,-45.9136932163,-12.0892849923,-35.1222240255,-25.6848415875,-7.80443802955,-21.6911949351,-29.6359023683,-105.312911912,-28.7912698284,-57.4767176635,-3.76767478232,-27.7675746162,-4.35992430416,-28.1810692608,-83.8176863702,-80.9114577416,-38.5010554899,-5.08476607169,-35.4251547083,-22.4734894192,10.9147207702,-184.818839538,-161.019882235,-152.567366455,-43.7992846286,-50.2322077367,-101.268920737,-98.7456473252,
165.473806992,64.6879959308,98.1674662544,109.136725824,63.2585661915,20.0348499709,39.2985232904,30.1092862062,63.151526147,97.5253267223,88.161432821,30.4889177894,96.8439548977,99.1015420141,114.77027005,146.028353619,41.9094633066,87.8857460925,89.607158961,17.033769922,-3.62046944212,15.4838945697,72.319430178,58.8507668313,63.151526147,22.7723476566,21.0211729041,105.48491968,185.949914849,122.327937679,-20.8046666144,105.555448375,187.447449883,76.8500018181,69.8019053168,-77.9693941503,-86.1793176081,-95.2726393635,-108.993148193,-114.549504733,-104.30904884,-146.125784656,-93.7128654413,-108.254090009,-41.67102835,-39.7921598899,-110.572316803,-158.198455288,-35.7724394625,-77.7903801144,-125.196447283,-54.6885649898,-83.9269535519,-119.46100775,-97.9873020267,-102.433968407,28.5668498033,17.3395671653,-30.524099044,5.99900106525,33.7113278381,-33.7659434981,0.244179541551,-68.2946855075,-67.5387383236,-14.6802366466,-95.0444922186,-122.792682676,-138.105034201,-61.3313665407,
434.218272684,204.578559092,206.850334878,191.775452421,110.728552907,-7.08456801594,57.4044469245,-127.47859566,-0.903557103979,-61.6629194565,-51.603419067,-61.0686653844,46.8119975771,-64.1893762747,-92.5025719515,101.783014341,-82.8038693193,-76.725400053,-85.6857252064,-94.4598021416,-88.5758500348,-0.452331236014,-7.77808941309,12.3182390353,-0.903557103979,-45.8441905995,21.6584399492,-5.32738741958,210.083311089,174.481451044,-27.5527914046,169.257631654,220.550375553,137.0270221,119.541485012,150.302386166,178.288097069,134.847361646,175.67140029,156.520236144,168.036028537,149.848262295,-214.034942248,-187.386607584,-170.45526637,-226.348926466,-169.355986489,-226.485887738,-140.721404118,31.6279943785,7.7060071153,66.9196438563,99.0642612438,-12.4387997537,91.1169545812,-12.5316698533,-96.4949545854,-89.8971730468,-157.600226798,-113.140528351,-60.7395090107,-99.5233045384,-131.044031982,-150.912152222,-228.230524964,-183.355949011,-247.864734593,-167.342873696,-234.436445578,-151.743977641,
152.219759199,142.332333234,59.3986043241,174.192547448,127.778811237,23.7111207812,-60.0421346885,119.097008655,122.446658193,152.693796772,42.3706244757,83.9401896397,151.77289351,114.964522049,-51.5160961676,101.549090571,-85.8069133796,-48.082484017,-39.9221467665,-64.008253968,-66.7255452544,-12.5914373146,-57.821521464,34.7586896075,122.446658193,-78.826674674,98.8437682435,-32.3319024656,80.2092155127,15.8953761945,-66.4792080355,19.8472755774,78.142510449,-10.2813816695,-34.3309212062,-22.7526565773,17.1771666832,-29.9995496788,6.77123965539,-22.0940586392,-10.4985835168,-19.1330892036,-73.4921777788,-59.2369645763,-106.08799172,-101.050277607,-14.3726361299,-22.7075112202,-99.7612387142,105.546163248,4.71530138265,81.5408284432,86.5185027091,18.3769818577,49.336446745,-5.75758989535,-92.1121897553,-99.1084213464,-97.4608506927,-20.6836875365,-4.76684598126,-75.9129458297,-119.490536319,-27.8281695362,-72.5802327915,-105.179729777,-73.843482128,-114.45512806,-83.4809751079,19.9975763665,